I'll help you create a system where your RC car can detect and move towards humans using the Raspberry Pi 5 with Pi camera for human detection, and then communicate with the ESP32 to control the car's movement.



```python
# Required imports
import cv2
import numpy as np
import serial
import time
from picamera2 import Picamera2

class HumanTrackingCar:
    def __init__(self, serial_port='/dev/ttyUSB0', baud_rate=115200):
        # Initialize camera
        self.camera = Picamera2()
        self.camera.preview_configuration.main.size = (640, 480)
        self.camera.preview_configuration.main.format = "RGB888"
        self.camera.configure("preview")
        self.camera.start()
        
        # Initialize HOG detector
        self.hog = cv2.HOGDescriptor()
        self.hog.setSVMDetector(cv2.HOGDescriptor_getDefaultPeopleDetector())
        
        # Initialize serial communication with ESP32
        try:
            self.esp32 = serial.Serial(serial_port, baud_rate)
            print("Connected to ESP32")
        except:
            print("Failed to connect to ESP32")
            self.esp32 = None
            
        # Constants for control
        self.frame_width = 640
        self.center_threshold = 100  # Acceptable distance from center
        self.min_distance = 150     # Minimum person size (closer = larger)
        
    def detect_humans(self, frame):
        # Detect humans in the frame
        boxes, weights = self.hog.detectMultiScale(frame, 
                                                 winStride=(8, 8),
                                                 padding=(4, 4),
                                                 scale=1.05)
        return boxes, weights
    
    def calculate_movement(self, boxes):
        if len(boxes) == 0:
            return 'STOP'
            
        # Get the largest detection (assuming it's the closest person)
        largest_box = max(boxes, key=lambda x: x[2] * x[3])
        x, y, w, h = largest_box
        
        # Calculate center of the detection
        center_x = x + w//2
        frame_center = self.frame_width // 2
        
        # Calculate relative position
        if w * h < self.min_distance:  # Person is far away
            if abs(center_x - frame_center) < self.center_threshold:
                return 'FORWARD'
            elif center_x < frame_center:
                return 'LEFT'
            else:
                return 'RIGHT'
        else:
            return 'STOP'  # Person is close enough
            
    def send_command(self, command):
        if self.esp32 is None:
            return
            
        # Map commands to ESP32 functions
        command_map = {
            'FORWARD': b'F',
            'LEFT': b'L',
            'RIGHT': b'R',
            'STOP': b'S'
        }
        
        if command in command_map:
            self.esp32.write(command_map[command])
            
    def run(self):
        try:
            while True:
                # Capture frame
                frame = self.camera.capture_array()
                
                # Detect humans
                boxes, weights = self.detect_humans(frame)
                
                # Calculate required movement
                command = self.calculate_movement(boxes)
                
                # Send command to ESP32
                self.send_command(command)
                
                # Draw detection boxes (for debugging)
                for (x, y, w, h) in boxes:
                    cv2.rectangle(frame, (x, y), (x + w, y + h), (0, 255, 0), 2)
                
                # Display frame
                cv2.imshow('Human Detection', frame)
                
                if cv2.waitKey(1) & 0xFF == ord('q'):
                    break
                    
        finally:
            cv2.destroyAllWindows()
            if self.esp32:
                self.esp32.close()
                
    def __del__(self):
        if self.esp32:
            self.esp32.close()

```

```cpp
// Add these at the top of your existing ESP32 code
char command;

void setup() {
  // Add to your existing setup code
  Serial.begin(115200);
}

void loop() {
  // Replace your existing loop with this
  if (Serial.available() > 0) {
    command = Serial.read();
    
    switch(command) {
      case 'F':
        moveForward();
        break;
      case 'L':
        turnLeft();
        break;
      case 'R':
        turnRight();
        break;
      case 'S':
        stopCar();
        break;
    }
  }
  
  // Optional: Keep obstacle avoidance as backup
  distance = getDistance();
  if (distance < 20) { // Very close obstacle detection
    stopCar();
    delay(500);
    moveBackward();
    delay(1000);
    stopCar();
  }
}

```

Here's how the system works:

1. The Raspberry Pi code:
   - Uses the Pi Camera to capture video frames
   - Implements human detection using OpenCV's HOG detector
   - Calculates the position of detected humans relative to the center of the frame
   - Sends appropriate movement commands to the ESP32 via serial communication

2. The ESP32 code modifications:
   - Receives commands from the Raspberry Pi over serial
   - Executes the appropriate movement function based on the command
   - Maintains obstacle avoidance as a safety feature

To set up the system:

1. Connect the Raspberry Pi and ESP32:
   - Connect ESP32 TX (GPIO1) to Raspberry Pi RX (GPIO15)
   - Connect ESP32 RX (GPIO3) to Raspberry Pi TX (GPIO14)
   - Connect their grounds together

2. Install required Python packages on the Raspberry Pi:
```bash
sudo apt-get update
sudo apt-get install python3-opencv python3-serial libcblas-dev
sudo pip3 install picamera2
```

3. Run the code:
```bash
python3 human_tracking_car.py
```

The car will:
- Move forward when it sees a person in the center of the frame
- Turn left/right to center a detected person
- Stop when it gets close enough to a person
- Stop if it detects an obstacle too close

Would you like me to modify any part of the system or add additional features?
